<?xml version="1.0"?>
<opencv_storage>
<cascade>
  <stageType>BOOST</stageType>
  <featureType>LBP</featureType>
  <height>32</height>
  <width>16</width>
  <stageParams>
    <boostType>GAB</boostType>
    <minHitRate>9.9900001287460327e-01</minHitRate>
    <maxFalseAlarm>1.0000000474974513e-03</maxFalseAlarm>
    <weightTrimRate>9.4999999999999996e-01</weightTrimRate>
    <maxDepth>2</maxDepth>
    <maxWeakCount>30</maxWeakCount></stageParams>
  <featureParams>
    <maxCatCount>256</maxCatCount>
    <featSize>1</featSize></featureParams>
  <stageNum>4</stageNum>
  <stages>
    <!-- stage 0 -->
    <_>
      <maxWeakCount>7</maxWeakCount>
      <stageThreshold>1.2227512151002884e-01</stageThreshold>
      <weakClassifiers>
        <_>
          <internalNodes>
            1 2 75 -18 -18433 -4178 -4113 -52225 -50241 -16465 -49217 0
            -1 16 -1 -269486081 -211813429 -285212945 -67371145
            2004876127 -134219929 -134217729 -2 -3 17 -352321537
            -486604802 -285212673 -419500290 1593802623 15892479
            2013233151 2013265919</internalNodes>
          <leafValues>
            -9.8074787855148315e-01 1.4471779577434063e-02
            -8.2160556316375732e-01 9.1669642925262451e-01</leafValues></_>
        <_>
          <internalNodes>
            1 2 136 -4194505 -67108865 -1000870937 -268439553 -134777083
            -9445601 -201326779 1090516983 0 -1 138 -16777217 -553648129
            -1025 -1056964609 -136317097 1934884727 -134217865
            -134217729 -2 -3 7 -352391169 -359732277 -2141273381
            -498406786 -108529041 1082378523 -538193925 1400366967</internalNodes>
          <leafValues>
            -9.7151488065719604e-01 -1.6193136107176542e-03
            -8.2173132896423340e-01 8.2109439373016357e-01</leafValues></_>
        <_>
          <internalNodes>
            1 2 10 -4114 -513 -276845590 -4097 -5234 -4212 -4114
            2004304642 0 -1 20 -1 -2097153 -4097 -4097 -202114049
            -528385 -1041 -1 -2 -3 26 -151323649 -1095576625 -18286082
            -17111346 2134931287 1914717179 2067495935 2004045791</internalNodes>
          <leafValues>
            -9.6394270658493042e-01 7.3551815748214722e-01
            -7.5288790464401245e-01 7.6477843523025513e-01</leafValues></_>
        <_>
          <internalNodes>
            1 2 58 -344086 -606273 -603987969 -20497 -135124033
            -1225310277 -276844545 -1342230721 0 -1 34 -1 -1 -6313985
            -137629714 -262145 1610348527 -134219785 -167772161 -2 -3 15
            -285212697 -1907375377 -687087229 -1563434358 1900540005
            1395852039 2012476163 1652031294</internalNodes>
          <leafValues>
            -9.1290664672851563e-01 2.8189155459403992e-01
            -8.3327752351760864e-01 8.0061578750610352e-01</leafValues></_>
        <_>
          <internalNodes>
            1 2 109 -67 -4673 -298059073 -268440065 -41961711 -9999412
            -17004 1107294143 0 -1 102 -193 2147482623 -1017123030 -17
            -131075 939524031 -134219987 -1 -2 -3 32 3145728 1442152445
            905246709 -134905859 -1778592385 -50462787 1978990525
            1056208</internalNodes>
          <leafValues>
            -9.3926858901977539e-01 1.6369125247001648e-01
            -7.2817313671112061e-01 8.0227243900299072e-01</leafValues></_>
        <_>
          <internalNodes>
            1 2 12 -268435593 -1347424501 -117716061 -1103188061
            -681057724 1466395511 1474250240 -159389913 0 -1 27
            -285544449 -134218241 -20455425 -4370 -151715845 -138939393
            -4194305 -524289 -2 -3 50 -889945856 -2293433 1393644437
            -574764715 -274108535 -275240309 1863420607 185075724</internalNodes>
          <leafValues>
            -8.5821443796157837e-01 3.7512686848640442e-01
            -8.2436990737915039e-01 8.1407612562179565e-01</leafValues></_>
        <_>
          <internalNodes>
            1 2 44 2136768478 527826941 1071623162 1004501947 2077092828
            532414463 1073691246 1002382263 0 -1 48 -268435457 -131585
            -268435969 -77826 -67633153 -134227521 -1025 -131649 -2 -3
            13 -287379457 -1563495585 -1035350849 -420549986 533690207
            18759951 2078244471 2013228910</internalNodes>
          <leafValues>
            -9.4200026988983154e-01 2.5492432713508606e-01
            -8.8393539190292358e-01 7.1681112051010132e-01</leafValues></_></weakClassifiers></_>
    <!-- stage 1 -->
    <_>
      <maxWeakCount>12</maxWeakCount>
      <stageThreshold>3.9172405004501343e-01</stageThreshold>
      <weakClassifiers>
        <_>
          <internalNodes>
            1 2 67 -67109890 -1141403138 1375412735 -15361 -1275383106
            -1147423826 1073415167 -3208562 0 -1 94 -2277441 -2248289
            -169886337 -151665 -1332229 -611327085 -69222465 -151634 -2
            -3 6 -297605456 -288453564 427900242 -539547632 1997011887
            -7665265 994881439 2011649473</internalNodes>
          <leafValues>
            -9.2687433958053589e-01 6.0606058686971664e-03
            -7.8726834058761597e-01 7.7820175886154175e-01</leafValues></_>
        <_>
          <internalNodes>
            1 2 79 -286347572 -184638977 -147001409 -134246404
            -880328705 -817943123 2065384447 -44683 0 -1 64 -470681223
            -2240001 1532352509 -2109025 -268436481 -71456577 2035678207
            -343044197 -2 -3 43 2105433340 -114689 -286372628 1069170431
            2138918364 2146926591 -14865 1073168383</internalNodes>
          <leafValues>
            -9.2831033468246460e-01 3.6696426570415497e-02
            -5.6482863426208496e-01 7.3688668012619019e-01</leafValues></_>
        <_>
          <internalNodes>
            1 2 112 -268440587 -405998084 -376439813 -2133855745
            -41944641 1738274339 -211377381 -202377217 0 -1 115
            -136353996 -2682626 -2401409 -2172418 2144990197 -223403926
            -2098757 -14025809 -2 -3 126 523251912 1035796468 520912829
            -704523 1044166591 -1090978628 355482044 498403968</internalNodes>
          <leafValues>
            -8.9092147350311279e-01 -1.3783515430986881e-02
            -5.1195526123046875e-01 7.4545395374298096e-01</leafValues></_>
        <_>
          <internalNodes>
            1 2 8 16785640 -961571 -686891521 -63521 -74468353 -4867919
            -1143603201 -1087352815 0 -1 51 -470424579 -139011
            1409664509 -9730 -335828145 -126529 -9179137 -1073934692 -2
            -3 11 -218169354 -16847108 -269496345 -268505376 812974079
            2146959357 1659367415 1743738743</internalNodes>
          <leafValues>
            -8.4633696079254150e-01 1.3521344959735870e-01
            -5.7716399431228638e-01 7.1477919816970825e-01</leafValues></_>
        <_>
          <internalNodes>
            1 2 89 -1863862344 1348260351 -585105922 -570634866
            -1298188867 -789201233 991803820 -306316369 0 -1 77
            -71305689 882376538 -136724545 -1276120625 -73400321
            -173025073 -1075070018 -1342178433 -2 -3 25 -280041474
            -2313762 -212748321 -139705938 1199579911 1201275130
            1644385243 1433883467</internalNodes>
          <leafValues>
            -8.7346243858337402e-01 1.5993627905845642e-01
            -6.6443145275115967e-01 6.7941170930862427e-01</leafValues></_>
        <_>
          <internalNodes>
            1 2 142 -4121 783072142 -540016653 803142655 -1180204
            637229467 -336596576 2147483615 0 -1 57 -39845889
            -1992437313 -571214977 -142625793 -274994179 -90662519
            -3298437 -50594433 -2 -3 2 -357635324 -359739058 -2146122934
            -288438066 -230207453 302056459 1883464467 1936930595</internalNodes>
          <leafValues>
            -8.1379747390747070e-01 4.1026961803436279e-01
            -6.7909586429595947e-01 6.2399452924728394e-01</leafValues></_>
        <_>
          <internalNodes>
            1 2 49 -1539133774 -151848969 670551408 2142691686 578857712
            -1483503598 -41160769 -8954917 0 -1 132 -883361805
            -578354669 -184312359 -34877193 -1165137237 -1156972414
            -1148584055 -104879173 -2 -3 5 -24187948 -298917166
            134222224 -863056943 -89421133 -242253685 -76817530
            1382545271</internalNodes>
          <leafValues>
            -8.7103450298309326e-01 3.6834439635276794e-01
            -7.5814044475555420e-01 5.6583857536315918e-01</leafValues></_>
        <_>
          <internalNodes>
            1 2 70 -1157725532 1981604221 -405292041 -2163777
            -1409613643 -255918007 -479343617 -1089663217 0 -1 83
            387218941 1037897948 -585295365 1071616473 -1173619971
            -72808295 -1121190920 -99591 -2 -3 45 821047586 -116047619
            286376273 -44236321 1535174907 -272777069 -83760661
            1515457469</internalNodes>
          <leafValues>
            -8.5471540689468384e-01 1.2242799997329712e-01
            -6.2314569950103760e-01 6.1368066072463989e-01</leafValues></_>
        <_>
          <internalNodes>
            1 2 24 -285285650 -825326054 -803339232 -153160746
            1401047663 1131233795 2002744951 2004841471 0 -1 129
            -1154826062 -108298166 -1053757225 -15264557 -1307854678
            -1735252977 -1409035521 -80027414 -2 -3 125 -818741836
            336620628 1073708827 -1346490609 -1174571523 1031782391
            1040127421 532627387</internalNodes>
          <leafValues>
            -9.0030437707901001e-01 1.6317699849605560e-01
            -5.0157248973846436e-01 6.1976593732833862e-01</leafValues></_>
        <_>
          <internalNodes>
            1 2 103 818948036 928908241 905305086 -10585122 42679228
            1959330090 -1717830760 -71356502 0 -1 96 -33555971
            -447497483 -648832513 -35678817 -370409473 -1484091237
            -221249606 -1049601 -2 -3 52 2145319391 -1966088887
            -2130247662 -496041720 -803338005 80724352 -69402334
            1206980352</internalNodes>
          <leafValues>
            -8.9665353298187256e-01 4.2817971110343933e-01
            -6.5956747531890869e-01 5.6939154863357544e-01</leafValues></_>
        <_>
          <internalNodes>
            1 2 84 -84091916 -228865 533746141 -738257931 451912635
            2140891298 2055940863 -959905746 0 -1 66 -279053321 -8568434
            1905383413 -36449 -89031681 -1147436869 -150605825 -2317378
            -2 -3 61 -1902209092 -1159949694 131328 847253528
            -1599379287 949093382 33800321 1004526809</internalNodes>
          <leafValues>
            -8.2879978418350220e-01 2.2481265664100647e-01
            -6.9574415683746338e-01 5.7636910676956177e-01</leafValues></_>
        <_>
          <internalNodes>
            1 2 135 -321951200 -103821041 -1041770081 -35653633
            -569377117 -6304789 -26227030 1656743935 0 -1 122
            -1875726094 -40726328 1362002911 2007912539 -225919776
            -1143308149 -83445025 -80020741 -2 -3 9 -1326448092
            -250281580 1410879941 -708750891 -670787397 -125271920
            -74933763 286298113</internalNodes>
          <leafValues>
            -8.4840911626815796e-01 3.2700011134147644e-01
            -6.9764631986618042e-01 6.2114489078521729e-01</leafValues></_></weakClassifiers></_>
    <!-- stage 2 -->
    <_>
      <maxWeakCount>17</maxWeakCount>
      <stageThreshold>-1.5356196090579033e-02</stageThreshold>
      <weakClassifiers>
        <_>
          <internalNodes>
            1 2 119 -134220425 -705168395 -79039489 -167773185 -33554433
            -704644615 -214 -134218753 0 -1 105 -524 -2097153 -204227073
            -1345 -69473795 -101976069 -50177 -32769 -2 -3 19 133353327
            -2 -12449 -528660 134156223 805249023 536809469 534726095</internalNodes>
          <leafValues>
            -8.6620372533798218e-01 -1.4928910136222839e-01
            -6.0761737823486328e-01 6.5517240762710571e-01</leafValues></_>
        <_>
          <internalNodes>
            1 2 110 -1050820 -1009781281 -1043343937 -489697329
            -948441153 1365770095 1399324668 2004877311 0 -1 100 -3778
            -57348610 -607658561 -403192833 -190842883 1911538159
            -12582980 -268435521 -2 -3 72 -1979274514 -25759846
            -1357057541 2147367902 991843 -68467829 789543419 -21762</internalNodes>
          <leafValues>
            -9.0775477886199951e-01 -3.3188650012016296e-01
            -5.6511509418487549e-01 5.6318473815917969e-01</leafValues></_>
        <_>
          <internalNodes>
            1 2 28 -4114 -18940161 -132715794 -290521601 2147437389
            2070895615 -1089537 2139095039 0 -1 139 -12846694 -581186531
            1563883935 -1084262689 -202640934 -1142816278 -121965670
            -67110401 -2 -3 23 -849154050 -21868331 -2095322625
            2146590534 -8209769 -163374469 -1614390562 1999979351</internalNodes>
          <leafValues>
            -8.3353394269943237e-01 4.0211874991655350e-02
            -5.3802353143692017e-01 5.2733337879180908e-01</leafValues></_>
        <_>
          <internalNodes>
            1 2 140 -285251653 -805312529 -136061057 -1342181441
            -135267043 1165751059 -158335177 1710094335 0 -1 128
            -6291593 -1048721 587858143 -1545630769 -336597121
            2011163551 -739246297 -134218761 -2 -3 120 150750296
            -547645073 -1056322145 -549138226 -131583844 -575110517
            -393683969 672670476</internalNodes>
          <leafValues>
            -8.7382841110229492e-01 -1.0838981717824936e-01
            -6.2123543024063110e-01 5.4887932538986206e-01</leafValues></_>
        <_>
          <internalNodes>
            1 2 63 -19202049 -6654473 -703559510 1069165186 -796864052
            -410424833 1225662532 2147437935 0 -1 42 298972031 -57716599
            -1291725345 -5221931 -1868453589 -1149042675 -343287301
            -50291651 -2 -3 33 -344987665 1264288731 1073955082
            -498958146 -1551385657 1629454987 16966276 1996485463</internalNodes>
          <leafValues>
            -7.3182582855224609e-01 2.7470633387565613e-01
            -5.3358912467956543e-01 5.3059715032577515e-01</leafValues></_>
        <_>
          <internalNodes>
            1 2 56 -453385809 -134417409 -15095105 -537014402
            -1061372481 -1783940367 -50606197 1465196317 0 -1 37
            -237055489 -681881356 -199172865 -1612721185 -88474449
            -1192211509 -573718593 991245247 -2 -3 68 -79823061
            118331399 1440346941 598969747 -81147083 -1680039927
            2068446037 679259915</internalNodes>
          <leafValues>
            -7.8304791450500488e-01 2.6282468438148499e-01
            -5.6455987691879272e-01 5.4150903224945068e-01</leafValues></_>
        <_>
          <internalNodes>
            1 2 4 646089466 -39988746 -755769601 -2125021 -1145307137
            -9458805 -74470401 1594165281 0 -1 133 -1306881904
            -632241944 -129697829 -618100385 2123294856 -90027902
            -628961125 -72687909 -2 -3 18 -610545406 -2026138805
            18039056 -1403133755 -94653577 117841924 1468940343
            2001722091</internalNodes>
          <leafValues>
            -7.3157423734664917e-01 2.1250759065151215e-01
            -6.9899684190750122e-01 5.4151189327239990e-01</leafValues></_>
        <_>
          <internalNodes>
            1 2 74 -286343169 -1343573095 -1257037383 -1076183052
            -418925092 1269839131 2031814548 -2752556 0 -1 91 -285229249
            -1893730817 -621939234 -1098990642 -385106435 -366225329
            -738727048 -262150 -2 -3 29 -347888914 -1564032754 16386
            1711988742 1933644067 943849487 1359639127 2001992567</internalNodes>
          <leafValues>
            -8.1650090217590332e-01 7.0581831037998199e-02
            -6.4019602537155151e-01 5.0977820158004761e-01</leafValues></_>
        <_>
          <internalNodes>
            1 2 31 1028417278 -35876402 1594891772 -1087499878
            1531470268 -7182082 -897041489 -9536514 0 -1 81 1963524087
            -673718122 355956223 2146645499 1107880687 -1249140558
            1016802303 -17441 -2 -3 35 -370212882 -1179650 -269549633
            368971516 -403308545 91583991 -134744265 1442301919</internalNodes>
          <leafValues>
            -6.5178406238555908e-01 3.7601098418235779e-01
            -3.7444350123405457e-01 6.3153761625289917e-01</leafValues></_>
        <_>
          <internalNodes>
            1 2 130 -1377869552 2118779163 1757900147 -151255457
            -1077160271 -1693761536 892343072 1597125247 0 -1 93
            -42206465 -82091876 -606545423 -136605671 755706603
            -1429561141 -617874501 -37774345 -2 -3 143 1541388102
            -993013425 -1052651206 -2132805653 -800064752 3928323
            1386854946 1375729663</internalNodes>
          <leafValues>
            -8.5466802120208740e-01 4.1747906804084778e-01
            -6.9312322139739990e-01 4.2897418141365051e-01</leafValues></_>
        <_>
          <internalNodes>
            1 2 107 -856161156 -69263033 -1855203367 -842038818
            335561901 -68976465 1896985259 772288298 0 -1 90 1091821567
            1433539032 1347678683 -100805319 -1182016839 -376921423
            -2102412290 -656713 -2 -3 55 -1500583250 657612 442891
            444620 -1836076042 8421380 1401637373 391102829</internalNodes>
          <leafValues>
            -8.8737028837203979e-01 7.9929858446121216e-02
            -7.2642546892166138e-01 3.7247854471206665e-01</leafValues></_>
        <_>
          <internalNodes>
            1 2 21 -1366318590 786410223 -925374093 -156965549
            -229162445 1493385345 1887859255 2145645431 0 -1 36
            -703072777 -646737839 1897517565 -78937345 -1198552389
            1067614347 -938616353 -552613685 -2 -3 104 863039420
            1267744914 -2130459361 -912490106 -624322376 -1897922230
            -1306582224 -148926706</internalNodes>
          <leafValues>
            -8.3712697029113770e-01 3.6296659708023071e-01
            -4.4143590331077576e-01 4.5430293679237366e-01</leafValues></_>
        <_>
          <internalNodes>
            1 2 98 -453778140 75354933 -641525827 804590538 -15996227
            546236634 -1154769350 1057324607 0 -1 78 -341059332
            -658079611 1967772051 -683684715 -494257429 -1182171008
            -208938513 -2108703 -2 -3 53 -300182596 242737925 1124075776
            -1967992456 797588408 973372 -75322606 1467046132</internalNodes>
          <leafValues>
            -8.4594959020614624e-01 1.6397352516651154e-01
            -6.2612873315811157e-01 4.3474733829498291e-01</leafValues></_>
        <_>
          <internalNodes>
            1 2 111 -1576337408 -1184968184 1216483801 -786656811
            -1962692188 -536707008 -1080910919 -1079276392 0 -1 114
            -611198692 -1101922291 1360216402 1962938455 1250502845
            -1728012160 -842485250 -1122917445 -2 -3 145 -1212766318
            -486886982 -2143 -990202180 1199036160 276035414 1169602464
            1081591191</internalNodes>
          <leafValues>
            -7.0680892467498779e-01 2.3148904740810394e-01
            -3.9791774749755859e-01 6.3779592514038086e-01</leafValues></_>
        <_>
          <internalNodes>
            1 2 0 -2078244625 -35503912 -2129520401 -1507185 -524034577
            -337141080 2063857727 2069222263 0 -1 97 1409407250
            1977340176 404496351 -1658322860 -398347637 1033994386
            973716380 1601292995 -2 -3 106 -197083788 -437104841 -249866
            1073659518 -270794279 1173827438 1073679613 -1111544274</internalNodes>
          <leafValues>
            -8.2460516691207886e-01 -3.6770060658454895e-02
            -4.1971868276596069e-01 6.0513627529144287e-01</leafValues></_>
        <_>
          <internalNodes>
            1 2 118 -270548220 668693083 834706652 1658442135 -70517300
            60812014 -360596552 809499199 0 -1 22 -853934181 -650784496
            -938406820 961919253 -653608501 -1089437568 -939486821
            -74720343 -2 -3 73 -537398224 -259632942 -1929379652
            -1383841497 -527990488 -1129594693 1007319484 825155503</internalNodes>
          <leafValues>
            -8.4575366973876953e-01 3.9909508824348450e-01
            -5.9834790229797363e-01 4.4967603683471680e-01</leafValues></_>
        <_>
          <internalNodes>
            1 2 113 -2075783594 -19001194 -907947137 -101772869
            -1683287381 -1668373881 -623987987 -1073795270 0 -1 60
            -267159553 -254574511 278246399 1989532281 -573120405
            -40746771 -1030366625 -42208743 -2 -3 46 -165756705
            586490183 -267321261 705102850 -760247894 9410617 1426948096
            1433060135</internalNodes>
          <leafValues>
            -7.2462958097457886e-01 4.6905651688575745e-01
            -7.2075021266937256e-01 4.9908587336540222e-01</leafValues></_></weakClassifiers></_>
    <!-- stage 3 -->
    <_>
      <maxWeakCount>13</maxWeakCount>
      <stageThreshold>-6.6612035036087036e-01</stageThreshold>
      <weakClassifiers>
        <_>
          <internalNodes>
            1 2 92 275894319 -716504619 1079103903 -711896847 -805271381
            -1400831872 -1878409029 -12199073 0 -1 40 -1726932589
            -648736685 419459477 -648441767 -402091893 -1166016448
            -2011133697 -1744728021 -2 -3 134 1075462144 1097866778
            858937555 1899066929 -1434967928 -1334806448 -902659958
            287457467</internalNodes>
          <leafValues>
            -7.9715782403945923e-01 5.1713395118713379e-01
            -5.1755875349044800e-01 6.6530239582061768e-01</leafValues></_>
        <_>
          <internalNodes>
            1 2 1 -825235002 -368881566 286261489 -929648236 -1970298117
            -1685880671 688723 1935925314 0 -1 131 -669450005 -645721894
            557073 -654311408 -671055704 -645922688 -1736406817 -8677749
            -2 -3 80 1288482966 -17891330 130715372 -1616069664
            214827266 -2038546562 1182614528 -6351686</internalNodes>
          <leafValues>
            -7.5196433067321777e-01 8.1394505500793457e-01
            -4.9968612194061279e-01 5.8009701967239380e-01</leafValues></_>
        <_>
          <internalNodes>
            1 2 69 -514621101 1779454209 50384912 -901746390 620830720
            1083187200 -1073709024 -199784 0 -1 65 -1017658493
            1090603076 1342242881 268649473 268668931 2013335824
            -787320813 -811875934 -2 -3 41 419778664 34160641
            -2071986032 34165076 557184 34209792 182504 10846966</internalNodes>
          <leafValues>
            -7.4671167135238647e-01 3.3441865444183350e-01
            -7.3782849311828613e-01 5.5118250846862793e-01</leafValues></_>
        <_>
          <internalNodes>
            1 2 59 -792279317 -761608118 -2118515510 1359683600
            -1602317152 -1576823691 1628815597 -542114419 0 -1 127
            -1576809747 1152 66 -2139095032 67289673 -2147450872 707350
            -1439973355 -2 -3 82 4096 -805273568 -2147483584 285344004
            268435456 128 163 655488</internalNodes>
          <leafValues>
            -6.8105107545852661e-01 1.7131805419921875e-01
            -6.6134786605834961e-01 8.5985845327377319e-01</leafValues></_>
        <_>
          <internalNodes>
            1 2 88 -1057438504 -761508658 652346576 1532707494 88179973
            1165774660 1509303444 -1147427254 0 -1 87 -1044142729
            1073807443 1082216945 -1069493920 528473 16 -1073667838
            -240991389 -2 -3 54 1780518443 -1029116182 -1930506513
            685830130 -1002978571 553281526 385812341 1099612924</internalNodes>
          <leafValues>
            -5.8354127407073975e-01 4.3291118741035461e-01
            -4.7480607032775879e-01 7.5731563568115234e-01</leafValues></_>
        <_>
          <internalNodes>
            1 2 144 810062476 453542533 1375764504 286593792 -1163800552
            -1472036734 -519911092 152027304 0 -1 47 -217881125
            125895171 66 -1651130360 -2013077362 -2113929086 -2063548276
            -40122131 -2 -3 95 -303125512 -1108639834 -1073745991
            -420573500 -163978 -167772288 -1097947 -2118033084</internalNodes>
          <leafValues>
            -7.4101710319519043e-01 5.7002174854278564e-01
            -3.6347743868827820e-01 6.3708364963531494e-01</leafValues></_>
        <_>
          <internalNodes>
            1 2 62 -1572618018 -534724478 -2012213120 1346764800
            -1845247957 -528482176 -2138980200 1426305308 0 -1 38
            268489245 1430339648 16781336 823201810 -2138732384
            -1744535424 -1073184632 -649215796 -2 -3 3 -152109058
            -487657734 -286064715 1861681148 -268996690 1425047541
            2004250526 -495833582</internalNodes>
          <leafValues>
            -7.8899145126342773e-01 5.6211161613464355e-01
            -2.5770342350006104e-01 6.7940104007720947e-01</leafValues></_>
        <_>
          <internalNodes>
            1 2 121 -1860468487 -2147368950 82 -1073676221 8409679 0
            1411942499 -293018736 0 -1 39 1414568119 -1861941103
            268505299 -1877929712 1736727 -2004877300 268456073
            -928357749 -2 -3 137 994082823 1392508928 65536 -1877999615
            524289 -2138404736 33914944 1182795475</internalNodes>
          <leafValues>
            -7.4752128124237061e-01 3.4608173370361328e-01
            -5.8814853429794312e-01 6.3473409414291382e-01</leafValues></_>
        <_>
          <internalNodes>
            1 2 76 -1684343865 -1622966264 -1878929407 427242368
            -1006386997 -1282703360 -2012937723 290967760 0 -1 85
            -687631881 318996480 1342242817 1368068289 -2138501981
            -804651008 -2147350496 -74714873 -2 -3 146 -619564720
            -1290231295 0 -1878884348 268664864 143163522 34258960
            7159826</internalNodes>
          <leafValues>
            -7.1440398693084717e-01 6.2781292200088501e-01
            -5.4637813568115234e-01 5.5863702297210693e-01</leafValues></_>
        <_>
          <internalNodes>
            1 2 86 -484858986 1077944321 1619345561 -1601093614 4296720
            276889616 16781361 -526782364 0 -1 116 -670841221 -771555328
            -2143284841 -775913471 -1870659416 -2147483648 -1467972957
            -863788886 -2 -3 14 -1606186365 1091141633 16777217 0
            -905387998 436731904 -1073739742 1627799553</internalNodes>
          <leafValues>
            -7.2765964269638062e-01 5.1254600286483765e-01
            -5.9282720088958740e-01 5.8818751573562622e-01</leafValues></_>
        <_>
          <internalNodes>
            1 2 124 -1811886000 -249869207 -642630865 -512611843
            -1466496834 -1793051350 -2147450678 -368539094 0 -1 108
            -1043676533 1073905795 134217794 8405064 2715 1082130432
            1073897723 -485777404 -2 -3 123 -1072939004 -1040187392
            1073758208 0 1130561 131072 544928 704858336</internalNodes>
          <leafValues>
            -6.7512434720993042e-01 2.5978720188140869e-01
            -6.4432907104492188e-01 7.0633208751678467e-01</leafValues></_>
        <_>
          <internalNodes>
            1 2 141 -771534848 -762314734 -788511736 1771655177
            -996147064 -2143289215 -1308065656 2047482075 0 -1 117
            295131 -653770752 2265 -738131968 35012 -637534200
            1073783006 -368392183 -2 -3 99 -827551992 1056845817
            2147479357 -318836993 465371776 -973193353 -536934480
            -782302096</internalNodes>
          <leafValues>
            -7.3327052593231201e-01 5.2332633733749390e-01
            -4.2362654209136963e-01 6.8133133649826050e-01</leafValues></_>
        <_>
          <internalNodes>
            1 2 101 -2053762632 -1593376511 118803 570590338 229379
            -2143191008 268439553 -901725624 0 -1 71 1091649783
            587202577 1073827923 1118483 16809985 1 536879335 -639927045
            -2 -3 30 -1094942498 -1062441044 -1090716052 850063094
            930615118 2113110012 670306170 1946155007</internalNodes>
          <leafValues>
            -8.2114106416702271e-01 8.1783789396286011e-01
            -4.5408692955970764e-01 6.2530416250228882e-01</leafValues></_></weakClassifiers></_></stages>
  <features>
    <_>
      <rect>
        0 0 1 1</rect></_>
    <_>
      <rect>
        0 0 1 3</rect></_>
    <_>
      <rect>
        0 0 1 4</rect></_>
    <_>
      <rect>
        0 0 1 5</rect></_>
    <_>
      <rect>
        0 0 2 1</rect></_>
    <_>
      <rect>
        0 0 2 6</rect></_>
    <_>
      <rect>
        0 0 3 3</rect></_>
    <_>
      <rect>
        0 0 3 9</rect></_>
    <_>
      <rect>
        0 0 4 1</rect></_>
    <_>
      <rect>
        0 0 5 1</rect></_>
    <_>
      <rect>
        0 0 5 8</rect></_>
    <_>
      <rect>
        0 1 3 4</rect></_>
    <_>
      <rect>
        0 3 1 8</rect></_>
    <_>
      <rect>
        0 5 3 9</rect></_>
    <_>
      <rect>
        0 6 1 7</rect></_>
    <_>
      <rect>
        0 6 2 6</rect></_>
    <_>
      <rect>
        0 8 2 6</rect></_>
    <_>
      <rect>
        0 8 3 8</rect></_>
    <_>
      <rect>
        0 11 2 4</rect></_>
    <_>
      <rect>
        0 11 4 2</rect></_>
    <_>
      <rect>
        0 11 4 3</rect></_>
    <_>
      <rect>
        0 12 1 5</rect></_>
    <_>
      <rect>
        0 13 3 1</rect></_>
    <_>
      <rect>
        0 16 4 2</rect></_>
    <_>
      <rect>
        0 17 1 5</rect></_>
    <_>
      <rect>
        0 18 4 2</rect></_>
    <_>
      <rect>
        0 19 3 4</rect></_>
    <_>
      <rect>
        0 19 4 3</rect></_>
    <_>
      <rect>
        0 23 2 3</rect></_>
    <_>
      <rect>
        0 24 1 2</rect></_>
    <_>
      <rect>
        0 26 1 2</rect></_>
    <_>
      <rect>
        0 29 4 1</rect></_>
    <_>
      <rect>
        1 0 5 1</rect></_>
    <_>
      <rect>
        1 5 2 3</rect></_>
    <_>
      <rect>
        1 6 3 7</rect></_>
    <_>
      <rect>
        1 8 3 3</rect></_>
    <_>
      <rect>
        1 10 5 2</rect></_>
    <_>
      <rect>
        1 11 5 2</rect></_>
    <_>
      <rect>
        1 12 2 1</rect></_>
    <_>
      <rect>
        1 12 4 2</rect></_>
    <_>
      <rect>
        1 13 5 1</rect></_>
    <_>
      <rect>
        1 13 5 6</rect></_>
    <_>
      <rect>
        1 14 5 1</rect></_>
    <_>
      <rect>
        1 23 3 3</rect></_>
    <_>
      <rect>
        1 23 5 3</rect></_>
    <_>
      <rect>
        2 0 4 2</rect></_>
    <_>
      <rect>
        2 6 2 6</rect></_>
    <_>
      <rect>
        2 7 1 7</rect></_>
    <_>
      <rect>
        2 9 3 2</rect></_>
    <_>
      <rect>
        2 14 3 2</rect></_>
    <_>
      <rect>
        3 0 3 3</rect></_>
    <_>
      <rect>
        3 2 3 2</rect></_>
    <_>
      <rect>
        3 6 2 7</rect></_>
    <_>
      <rect>
        3 7 2 4</rect></_>
    <_>
      <rect>
        3 8 1 2</rect></_>
    <_>
      <rect>
        3 10 1 2</rect></_>
    <_>
      <rect>
        3 11 3 2</rect></_>
    <_>
      <rect>
        3 11 4 4</rect></_>
    <_>
      <rect>
        3 12 3 3</rect></_>
    <_>
      <rect>
        3 13 1 1</rect></_>
    <_>
      <rect>
        3 13 4 2</rect></_>
    <_>
      <rect>
        3 14 1 6</rect></_>
    <_>
      <rect>
        3 17 1 3</rect></_>
    <_>
      <rect>
        3 21 2 3</rect></_>
    <_>
      <rect>
        4 0 3 3</rect></_>
    <_>
      <rect>
        4 2 2 4</rect></_>
    <_>
      <rect>
        4 2 3 2</rect></_>
    <_>
      <rect>
        4 2 3 4</rect></_>
    <_>
      <rect>
        4 3 4 2</rect></_>
    <_>
      <rect>
        4 5 2 5</rect></_>
    <_>
      <rect>
        4 5 3 2</rect></_>
    <_>
      <rect>
        4 5 3 5</rect></_>
    <_>
      <rect>
        4 6 2 2</rect></_>
    <_>
      <rect>
        4 7 4 3</rect></_>
    <_>
      <rect>
        4 11 2 7</rect></_>
    <_>
      <rect>
        4 12 3 3</rect></_>
    <_>
      <rect>
        4 17 1 5</rect></_>
    <_>
      <rect>
        4 19 4 2</rect></_>
    <_>
      <rect>
        4 20 1 1</rect></_>
    <_>
      <rect>
        4 20 2 2</rect></_>
    <_>
      <rect>
        4 22 2 2</rect></_>
    <_>
      <rect>
        4 23 3 3</rect></_>
    <_>
      <rect>
        4 26 2 2</rect></_>
    <_>
      <rect>
        4 29 4 1</rect></_>
    <_>
      <rect>
        5 1 2 4</rect></_>
    <_>
      <rect>
        5 3 1 1</rect></_>
    <_>
      <rect>
        5 4 2 5</rect></_>
    <_>
      <rect>
        5 5 2 7</rect></_>
    <_>
      <rect>
        5 7 1 1</rect></_>
    <_>
      <rect>
        5 8 3 2</rect></_>
    <_>
      <rect>
        5 10 2 1</rect></_>
    <_>
      <rect>
        5 10 2 7</rect></_>
    <_>
      <rect>
        5 11 3 2</rect></_>
    <_>
      <rect>
        5 14 1 1</rect></_>
    <_>
      <rect>
        5 16 2 3</rect></_>
    <_>
      <rect>
        5 17 2 4</rect></_>
    <_>
      <rect>
        5 17 3 3</rect></_>
    <_>
      <rect>
        5 18 2 1</rect></_>
    <_>
      <rect>
        5 19 3 2</rect></_>
    <_>
      <rect>
        5 21 2 2</rect></_>
    <_>
      <rect>
        6 8 3 3</rect></_>
    <_>
      <rect>
        6 9 1 6</rect></_>
    <_>
      <rect>
        6 11 3 6</rect></_>
    <_>
      <rect>
        6 15 2 2</rect></_>
    <_>
      <rect>
        6 15 2 3</rect></_>
    <_>
      <rect>
        6 20 2 3</rect></_>
    <_>
      <rect>
        6 21 2 3</rect></_>
    <_>
      <rect>
        7 0 2 3</rect></_>
    <_>
      <rect>
        7 0 2 5</rect></_>
    <_>
      <rect>
        7 0 3 10</rect></_>
    <_>
      <rect>
        7 6 3 4</rect></_>
    <_>
      <rect>
        7 8 1 1</rect></_>
    <_>
      <rect>
        7 8 3 5</rect></_>
    <_>
      <rect>
        7 12 1 2</rect></_>
    <_>
      <rect>
        7 12 3 1</rect></_>
    <_>
      <rect>
        7 13 2 2</rect></_>
    <_>
      <rect>
        7 14 1 1</rect></_>
    <_>
      <rect>
        7 14 3 1</rect></_>
    <_>
      <rect>
        7 18 3 2</rect></_>
    <_>
      <rect>
        7 19 3 3</rect></_>
    <_>
      <rect>
        8 0 2 2</rect></_>
    <_>
      <rect>
        8 4 1 8</rect></_>
    <_>
      <rect>
        8 10 1 1</rect></_>
    <_>
      <rect>
        8 13 2 6</rect></_>
    <_>
      <rect>
        8 19 1 1</rect></_>
    <_>
      <rect>
        8 22 2 3</rect></_>
    <_>
      <rect>
        8 26 2 2</rect></_>
    <_>
      <rect>
        9 2 1 8</rect></_>
    <_>
      <rect>
        9 7 2 5</rect></_>
    <_>
      <rect>
        9 11 1 1</rect></_>
    <_>
      <rect>
        9 12 1 2</rect></_>
    <_>
      <rect>
        9 12 2 1</rect></_>
    <_>
      <rect>
        9 14 1 1</rect></_>
    <_>
      <rect>
        9 19 1 1</rect></_>
    <_>
      <rect>
        9 20 1 1</rect></_>
    <_>
      <rect>
        10 0 2 4</rect></_>
    <_>
      <rect>
        10 0 2 8</rect></_>
    <_>
      <rect>
        10 2 2 5</rect></_>
    <_>
      <rect>
        10 10 2 6</rect></_>
    <_>
      <rect>
        10 11 1 1</rect></_>
    <_>
      <rect>
        10 11 2 4</rect></_>
    <_>
      <rect>
        10 12 1 1</rect></_>
    <_>
      <rect>
        10 17 2 5</rect></_>
    <_>
      <rect>
        10 19 2 3</rect></_>
    <_>
      <rect>
        10 26 2 2</rect></_>
    <_>
      <rect>
        11 5 1 4</rect></_>
    <_>
      <rect>
        13 0 1 6</rect></_></features></cascade>
</opencv_storage>
