<?xml version="1.0"?>
<opencv_storage>
<cascade>
  <stageType>BOOST</stageType>
  <featureType>LBP</featureType>
  <height>32</height>
  <width>16</width>
  <stageParams>
    <boostType>GAB</boostType>
    <minHitRate>9.9900001287460327e-01</minHitRate>
    <maxFalseAlarm>1.0000000474974513e-03</maxFalseAlarm>
    <weightTrimRate>9.4999999999999996e-01</weightTrimRate>
    <maxDepth>2</maxDepth>
    <maxWeakCount>30</maxWeakCount></stageParams>
  <featureParams>
    <maxCatCount>256</maxCatCount>
    <featSize>1</featSize></featureParams>
  <stageNum>4</stageNum>
  <stages>
    <!-- stage 0 -->
    <_>
      <maxWeakCount>8</maxWeakCount>
      <stageThreshold>1.7769990861415863e-01</stageThreshold>
      <weakClassifiers>
        <_>
          <internalNodes>
            1 2 116 -203 -9 -10487361 -1 -527595 -144706729 -134220015
            1903687031 0 -1 16 -1 -1 -279188481 -134225169 -2626561
            2012741631 -135268353 -134217729 -2 -3 19 -285278209
            -352387074 -419496193 -487919874 1593802623 12877823
            2130673663 2013264895</internalNodes>
          <leafValues>
            -9.7390317916870117e-01 1.4587737619876862e-01
            -8.4887838363647461e-01 8.7178057432174683e-01</leafValues></_>
        <_>
          <internalNodes>
            1 2 4 -1 -286261505 -44047437 -486604873 -1161 232521723
            -134219977 1400370999 0 -1 40 -17 -10241 -262162 -1
            -67108913 -268439573 -1044 -33 -2 -3 71 292561152 -4345857
            1576365905 -184321 -9093323 -131075 1043398591 780666380</internalNodes>
          <leafValues>
            -9.6845275163650513e-01 6.9334477186203003e-02
            -6.8096184730529785e-01 8.2494616508483887e-01</leafValues></_>
        <_>
          <internalNodes>
            1 2 150 -129 -1342177409 -136325761 805306367 -134251691
            122904157 -168300208 1979711479 0 -1 148 -129 -402653185
            -738728145 -402653201 -143136905 1350034367 -142608585 -9 -2
            -3 32 -16842753 -1292206081 -17895684 -1332860698 1031765877
            925925247 2004319871 2004314111</internalNodes>
          <leafValues>
            -9.4218599796295166e-01 2.3021030426025391e-01
            -7.4177098274230957e-01 8.0090177059173584e-01</leafValues></_>
        <_>
          <internalNodes>
            1 2 64 -17104898 -540673 -603992065 -4097 -453365825
            -1208537157 -268488769 -61650 0 -1 41 -327681 -1 -39868929
            -472912146 2147221503 1207957487 -134232073 -167776257 -2 -3
            22 -956303610 10943447 -536423758 34402654 1365212001
            2212459 1657226055 1350039143</internalNodes>
          <leafValues>
            -9.0920656919479370e-01 5.5465564131736755e-02
            -8.9589446783065796e-01 8.2111024856567383e-01</leafValues></_>
        <_>
          <internalNodes>
            1 2 135 -268435459 -402659361 -69779841 -520093697
            -234883755 1145033815 1202861824 1476394779 0 -1 43 -1 -1 -1
            -537006194 -545783825 -525441 -69207042 -4113 -2 -3 6
            570428576 -940183947 -404459522 -594057 -536875009
            -277577739 -1074464787 219170116</internalNodes>
          <leafValues>
            -9.2077881097793579e-01 3.0719164013862610e-01
            -6.5017753839492798e-01 7.2655272483825684e-01</leafValues></_>
        <_>
          <internalNodes>
            1 2 27 -285278242 -201392386 -151060482 -255131662
            2143780735 901545975 2004844543 2146958335 0 -1 18 -1 -2049
            -105120769 -16777281 -525707 -402653377 -134223913 -1 -2 -3
            8 -67833908 -655361 -806006836 -33689601 -134762588
            -134803552 -585969 2002061059</internalNodes>
          <leafValues>
            -9.1048735380172729e-01 5.4645937681198120e-01
            -6.8262875080108643e-01 7.0968443155288696e-01</leafValues></_>
        <_>
          <internalNodes>
            1 2 121 -268441756 780140511 -573049929 -2098177 -167774475
            670948215 -167774992 2013263869 0 -1 130 -139 -134217857
            -6817409 -1 -6292491 -2100561 -1048673 -16811201 -2 -3 44
            -268437505 -1562189377 156615871 -1595750710 -406329737
            2179247 1728565863 1086838862</internalNodes>
          <leafValues>
            -9.2566430568695068e-01 1.7952887713909149e-01
            -7.4883675575256348e-01 6.6327315568923950e-01</leafValues></_>
        <_>
          <internalNodes>
            1 2 115 488380413 -1612898353 1071144447 -53257 -14926083
            1006435208 -1110368324 -119392 0 -1 113 -147651 -17409
            -73552897 -151617 -147473 2079322815 -1196226 -69619928 -2
            -3 39 -4370 -4194642 -29010 -68158582 -268439601 -7512
            -1090540020 565117122</internalNodes>
          <leafValues>
            -8.4688496589660645e-01 3.6768129467964172e-01
            -6.8135875463485718e-01 8.1955820322036743e-01</leafValues></_></weakClassifiers></_>
    <!-- stage 1 -->
    <_>
      <maxWeakCount>13</maxWeakCount>
      <stageThreshold>-2.5115352123975754e-02</stageThreshold>
      <weakClassifiers>
        <_>
          <internalNodes>
            1 2 110 -52740 2147434239 -538968129 -67159057 -1074841601
            -1144052610 -134218753 -1140902913 0 -1 109 -609232225
            -138735593 -664871169 -8695649 -1177574408 -176160373
            -71765000 -1111756097 -2 -3 29 -269553698 -2 -32769 -110594
            1207371599 2147436415 2139049855 2139047759</internalNodes>
          <leafValues>
            -9.0800178050994873e-01 7.2368420660495758e-02
            -6.1831218004226685e-01 7.7072441577911377e-01</leafValues></_>
        <_>
          <internalNodes>
            1 2 31 -487395342 -790529 -2629633 -12726 1442857968
            -134794621 -787461 -569609 0 -1 105 -2138406664 -1855149348
            -781184515 -606860836 -845621252 -1735647044 -1618232321
            -1078314244 -2 -3 126 -216407680 162054011 -1881179375
            -2080374881 -1073741835 1073586175 -49923 973044735</internalNodes>
          <leafValues>
            -9.0363228321075439e-01 -1.6486018896102905e-02
            -4.2340832948684692e-01 7.5151860713958740e-01</leafValues></_>
        <_>
          <internalNodes>
            1 2 91 -825325396 -16867862 -544572931 -1537 -1953821416
            -138803048 668551679 -1075902017 0 -1 145 -16777449
            2105495551 -1849164389 -34604065 -72353861 -1115747585
            -91231317 -352323585 -2 -3 5 -299176256 -301008974
            1360259923 -2099562 -82183173 -23332197 1807399807
            1475433841</internalNodes>
          <leafValues>
            -8.0377686023712158e-01 3.4532073140144348e-01
            -7.1458625793457031e-01 6.7875009775161743e-01</leafValues></_>
        <_>
          <internalNodes>
            1 2 13 -68163957 -281019481 -2269 -16797918 2004313667
            2004841852 1182230055 -143136777 0 -1 47 -471859201
            -136364034 -451149825 -538980610 647757819 733172115
            -1349781553 -69264385 -2 -3 34 1599625464 -1142489089
            384437926 -223200350 1530948845 -688387 1434193903
            2071205163</internalNodes>
          <leafValues>
            -7.4510884284973145e-01 2.8899559378623962e-01
            -4.5452991127967834e-01 7.4592554569244385e-01</leafValues></_>
        <_>
          <internalNodes>
            1 2 102 -20924964 -43074657 -1756056579 -1107412998
            -2012992623 454755067 -104192018 -1277489089 0 -1 75
            -553650113 -186715905 -1851265091 -442509329 -116409409
            -168843013 -15746116 -1112543489 -2 -3 11 -68223260
            -755831066 -269553945 -269553948 979828718 -671088649
            -202377242 1676113767</internalNodes>
          <leafValues>
            -8.3049613237380981e-01 1.7410436272621155e-01
            -5.2357482910156250e-01 6.6080510616302490e-01</leafValues></_>
        <_>
          <internalNodes>
            1 2 7 818946082 -187579907 -267780105 -136457091 -94529025
            -72056653 -1310860545 335582277 0 -1 37 -104072193 -2346787
            2085802463 -3243589 -74532101 -75495294 -542377217 -1049605
            -2 -3 35 499153404 1038680052 -1226002434 -71423190
            1459894203 2147237874 1029519359 2075600867</internalNodes>
          <leafValues>
            -8.2966047525405884e-01 5.3620523214340210e-01
            -4.1715878248214722e-01 6.0990089178085327e-01</leafValues></_>
        <_>
          <internalNodes>
            1 2 118 -239081283 -907022437 -2128536901 -2138068257
            1473243133 326103926 -188762325 -671091729 0 -1 94
            -536889345 -1684275501 1493414297 -1107297287 -174071043
            -617905015 -643567115 -2631203 -2 -3 103 -822285263 -69825
            -8978563 -33558673 -1143308496 -67113025 2132041259
            705171210</internalNodes>
          <leafValues>
            -7.7169919013977051e-01 3.4818845987319946e-01
            -5.1735574007034302e-01 6.6349679231643677e-01</leafValues></_>
        <_>
          <internalNodes>
            1 2 70 -285421704 -516 -241469091 2080332893 -392283209
            -69235784 721369983 -455277528 0 -1 104 -34669067 -570814225
            -191637025 -18877697 2132489215 -1163947638 268302847
            -289462226 -2 -3 97 805316808 2138968241 -1323920420
            2065443564 989936156 847972523 951794344 1610601002</internalNodes>
          <leafValues>
            -8.5393518209457397e-01 1.2190899252891541e-01
            -7.1044379472732544e-01 5.4191023111343384e-01</leafValues></_>
        <_>
          <internalNodes>
            1 2 28 -839388470 -331416659 -267938760 -564203042 339966767
            953095 2138388071 1467479935 0 -1 114 -136315073 1995686251
            360928669 -209776229 -779093249 -1416912709 -90177606
            -1145373009 -2 -3 132 -269254668 -1074593793 -84036
            -403260546 -1644208648 1037827581 1741096361 139133871</internalNodes>
          <leafValues>
            -8.2063239812850952e-01 1.1371113359928131e-01
            -4.4127649068832397e-01 6.0145282745361328e-01</leafValues></_>
        <_>
          <internalNodes>
            1 2 131 -352437932 -1149363233 -258236105 -83910401
            -760482915 -24493885 -229903553 -22401273 0 -1 50 -200117893
            1945704658 -788422313 -11693736 1677953677 -80216064
            -1425962593 -605749224 -2 -3 20 -336670721 -270337
            -268447745 -571416848 595005431 402006015 2146920287
            391469007</internalNodes>
          <leafValues>
            -8.0593514442443848e-01 3.4556043148040771e-01
            -4.0357360243797302e-01 6.7224848270416260e-01</leafValues></_>
        <_>
          <internalNodes>
            1 2 146 -137897166 -1088427061 1435206029 -1433420913
            1664017169 2133006351 -25435323 1124059127 0 -1 157
            -134483302 -35278317 -1874226861 -103558437 -108279558
            948666504 -72614662 -67372033 -2 -3 12 -1593775416 -994224
            -804174236 -539663160 1400957951 -886503287 -117187637
            532677716</internalNodes>
          <leafValues>
            -8.4708803892135620e-01 4.3389385938644409e-01
            -6.6764897108078003e-01 5.2079498767852783e-01</leafValues></_>
        <_>
          <internalNodes>
            1 2 74 1720758262 2052233904 85182839 1596330966 882586480
            -170139450 -1548002756 -95270 0 -1 161 -104858120 -744815425
            -1806462889 -547420069 -376796454 -72679272 -1123894342
            -71312417 -2 -3 9 -426776249 1716511106 -805224170
            -355282746 -1836885967 822247426 302086663 2001172999</internalNodes>
          <leafValues>
            -7.5461614131927490e-01 8.3898812532424927e-01
            -5.0201988220214844e-01 6.2181442975997925e-01</leafValues></_>
        <_>
          <internalNodes>
            1 2 84 -857955060 1828512095 -78409793 -539163395 -269642
            -169148397 -69207361 -783984554 0 -1 83 -23068673 -671353410
            -735339169 -1079264101 -73616751 -1433306567 -763199234
            -542178181 -2 -3 156 -134742170 -1410662482 -16 -1359282178
            -1879059056 100136817 -188762848 362806779</internalNodes>
          <leafValues>
            -7.7539271116256714e-01 3.7871748208999634e-01
            -5.1102423667907715e-01 6.3186472654342651e-01</leafValues></_></weakClassifiers></_>
    <!-- stage 2 -->
    <_>
      <maxWeakCount>18</maxWeakCount>
      <stageThreshold>-1.8692784011363983e-02</stageThreshold>
      <weakClassifiers>
        <_>
          <internalNodes>
            1 2 25 -67960841 -527361 -10621441 -4113 -202309705
            -135004229 -11535361 -1 0 -1 67 -1 -1075856417 -673710113
            -1073758466 -1076110337 -1074020213 -100672513 -3156515 -2
            -3 152 -895507473 -1029035270 -1870523965 -1050947061
            -494181825 1074430466 1957634611 1431302735</internalNodes>
          <leafValues>
            -7.7427583932876587e-01 -7.9228384420275688e-03
            -7.1329021453857422e-01 6.3924705982208252e-01</leafValues></_>
        <_>
          <internalNodes>
            1 2 129 -855882664 -536870945 -176424449 -2593 -59483688
            -5217 -30213121 2064138042 0 -1 3 -2101249 -281023846
            357015951 -6310133 -67117057 1536156479 1541916551
            1465642871 -2 -3 147 -16779341 1979709303 -268437701
            -201326729 2071951155 859307903 -25168077 1660942327</internalNodes>
          <leafValues>
            -8.3058482408523560e-01 -1.6558165848255157e-01
            -5.2050966024398804e-01 5.6473439931869507e-01</leafValues></_>
        <_>
          <internalNodes>
            1 2 62 -536936449 -2031091721 -407428649 -488167614
            -555775237 -1929393685 -539031945 1400193856 0 -1 79
            -52429825 -100726449 2103178239 -2100481 -255066197 -6674370
            -609484817 -541066833 -2 -3 26 -999822782 1199562751
            -67109133 2147479278 274146935 1350006399 1417114999
            1969747831</internalNodes>
          <leafValues>
            -7.6344865560531616e-01 4.3848529458045959e-01
            -4.5892983675003052e-01 5.3219318389892578e-01</leafValues></_>
        <_>
          <internalNodes>
            1 2 42 -341115906 -571287051 -817386097 -572600994
            -243953188 1368775063 -442400337 1442697182 0 -1 78
            -277558893 -639956829 -217910853 -539016459 -340085829
            -1982216050 -1304767013 -536884225 -2 -3 76 -1528108306
            -120684308 16687853 15401724 -805307137 -1025006593
            671086331 1608466644</internalNodes>
          <leafValues>
            -7.9637175798416138e-01 4.4637594372034073e-02
            -4.2295446991920471e-01 5.4360103607177734e-01</leafValues></_>
        <_>
          <internalNodes>
            1 2 0 -1467824434 -1324353 -119813633 -1191457 -337923349
            -68450165 2004611711 1392866129 0 -1 159 -538969096
            -1282474057 -1046619355 -1074408497 -611320324 -1108346421
            -106966083 2146434047 -2 -3 10 -18876684 -824295290
            118125488 -494474604 -1214533145 1370468559 -74718495
            1357903669</internalNodes>
          <leafValues>
            -8.6884999275207520e-01 -1.2555474042892456e-01
            -6.4266842603683472e-01 5.2002710103988647e-01</leafValues></_>
        <_>
          <internalNodes>
            1 2 154 -269484041 -1343259681 -802434601 -1612722181
            -168298540 794819558 1944049604 2138570719 0 -1 124 -2097297
            -942934661 -662982401 -997223985 -70525969 -575672625
            -1208224990 -2049 -2 -3 66 -1376010244 -487391243 -34672657
            -889542160 -1090519042 1727692797 -402653186 -1042298940</internalNodes>
          <leafValues>
            -7.8979474306106567e-01 1.5220879577100277e-02
            -4.2344000935554504e-01 5.5517792701721191e-01</leafValues></_>
        <_>
          <internalNodes>
            1 2 61 -287707485 -251663529 -104467467 -132899 1256951342
            1677393930 2054553471 1870466845 0 -1 136 -1598824294
            -706019199 -1872182949 -235023913 982440906 -1148673909
            -1173685314 -67184133 -2 -3 15 -339830434 1431379866
            -989331180 1605521722 -149966200 128654735 -216898813
            2008480742</internalNodes>
          <leafValues>
            -7.2847324609756470e-01 2.4649463593959808e-01
            -5.5326098203659058e-01 5.5438041687011719e-01</leafValues></_>
        <_>
          <internalNodes>
            1 2 2 -824773634 -422121002 -2124889089 1927181012
            2005130239 -613950519 1916957431 1901589047 0 -1 17
            -350028813 -273084105 -444349569 -312541697 -754846795
            -237655413 -338705543 -268477633 -2 -3 52 -18211592
            -590475065 -1069260062 999953056 1938577600 722551562
            402981412 528694475</internalNodes>
          <leafValues>
            -8.3391934633255005e-01 -8.7314903736114502e-02
            -5.7798087596893311e-01 4.7349318861961365e-01</leafValues></_>
        <_>
          <internalNodes>
            1 2 96 -273699538 -808455489 -1040978002 -286333054
            -1409466371 -1014431542 -86186204 -134610956 0 -1 23
            -752377377 -540407586 -1793863403 -102804450 -1719410021
            -1313570806 -1448483851 -528177 -2 -3 134 -134746092
            -553389049 1409600000 -23407833 1259036709 1612917251
            -218111227 1924319027</internalNodes>
          <leafValues>
            -7.9561847448348999e-01 1.3069322705268860e-01
            -7.2110915184020996e-01 4.1626399755477905e-01</leafValues></_>
        <_>
          <internalNodes>
            1 2 144 1506808592 -172027873 -199075875 459248029 -74785622
            -72365090 -208945153 136337742 0 -1 36 -69473537 -69303793
            -1744796941 2136609054 -124046657 1941571722 2120907387
            2138537087 -2 -3 63 -1428168065 -2112446270 68321310
            12615808 -2138402661 583671947 4399182 1157355192</internalNodes>
          <leafValues>
            -8.3176684379577637e-01 9.4278864562511444e-03
            -4.5208355784416199e-01 5.2769291400909424e-01</leafValues></_>
        <_>
          <internalNodes>
            1 2 54 -21836236 -134283268 -84017197 -1085842 -318996545
            -50331649 2130671583 -790893321 0 -1 151 -1145323312
            -749530984 -788393965 -617172621 -234425464 -786708408
            -131929718 -73468946 -2 -3 112 -147688 -461406402 -16477
            -1883279361 -2051 629143423 -1224772348 280690678</internalNodes>
          <leafValues>
            -6.0861390829086304e-01 3.1157770752906799e-01
            -5.0064665079116821e-01 6.1237454414367676e-01</leafValues></_>
        <_>
          <internalNodes>
            1 2 127 151045116 223124432 -788333601 -39857675 -1148518412
            -1194073973 1799057149 89100267 0 -1 92 600880127
            -1692462826 -1315759617 1936594139 737884405 -2095325053
            527551469 -134353922 -2 -3 111 592314880 -338952190
            1090640382 -657812838 -491585100 -1717403511 -801252804
            -12849538</internalNodes>
          <leafValues>
            -8.0111318826675415e-01 -7.1437233127653599e-03
            -5.0575017929077148e-01 5.2809965610504150e-01</leafValues></_>
        <_>
          <internalNodes>
            1 2 158 -614499536 1676612411 -210692352 1398224395
            -263988847 -2080167854 -787826944 1930326587 0 -1 81
            -222157519 -204412650 -506072875 2065681624 -2011471685
            -1493008256 2141313674 -271365 -2 -3 82 -1360015748
            -688984340 -487653762 1558685924 268267519 -797705097
            1190594127 1440699716</internalNodes>
          <leafValues>
            -7.6713949441909790e-01 2.4148109555244446e-01
            -3.7353184819221497e-01 5.0359445810317993e-01</leafValues></_>
        <_>
          <internalNodes>
            1 2 98 1653669874 2110919903 -111307971 -2014934017
            -29019753 -1312042789 -1147158725 -539000282 0 -1 46
            -402003489 -740110120 823739356 -605843120 -1735294816
            -1870561215 -1451127955 -314320745 -2 -3 14 -81828897
            772998047 83984403 1717462540 1057718631 59451721
            -1523932905 325582702</internalNodes>
          <leafValues>
            -7.3563516139984131e-01 6.1868522316217422e-02
            -6.8730336427688599e-01 5.4288053512573242e-01</leafValues></_>
        <_>
          <internalNodes>
            1 2 149 -70603 -87161985 -2096868025 1619970527 -415239171
            24537133 -79692812 2004877311 0 -1 100 2061187281 -154972007
            -787917732 2141324120 -651429689 430545289 -216812807
            -5514763 -2 -3 89 -1068588922 1385468339 -1043331723
            -753691909 -1575910570 -524767082 1770379391 257492500</internalNodes>
          <leafValues>
            -7.9221838712692261e-01 1.0038702934980392e-01
            -4.8132368922233582e-01 4.9594324827194214e-01</leafValues></_>
        <_>
          <internalNodes>
            1 2 33 -268439570 -358428286 1577771252 -560016488 844307067
            189204491 1616346959 2001203839 0 -1 60 -767311425 -96472717
            1079185527 -658386573 -669795649 -644226846 -514082629
            -1460930385 -2 -3 128 355481596 401383316 2130165725
            363667189 1073559549 -1615761411 -704807180 925706129</internalNodes>
          <leafValues>
            -7.2941881418228149e-01 2.7063339948654175e-01
            -4.1658002138137817e-01 5.1020443439483643e-01</leafValues></_>
        <_>
          <internalNodes>
            1 2 55 -17152293 -1437982315 1500653341 -24116015 -71309121
            -1343291263 -82753150 1080608500 0 -1 160 -107230305
            -551649135 17875171 -1080620461 -368336166 -930447222
            -229969169 -2106705 -2 -3 68 1621403558 862998968 -510699201
            -939777812 1082245256 1342767272 -96743121 1398098950</internalNodes>
          <leafValues>
            -8.4889507293701172e-01 6.5452718734741211e-01
            -6.4867794513702393e-01 3.7311446666717529e-01</leafValues></_>
        <_>
          <internalNodes>
            1 2 95 33614554 504890746 319920346 330832106 -1576934936
            -1516520831 730544540 -11443590 0 -1 53 2004357599
            -581791527 319992299 -1684582250 2055760365 -125237109
            -360038983 -8404225 -2 -3 138 -500010486 279984253
            -138412144 943415166 -1209402944 -2076762572 942905752
            438458847</internalNodes>
          <leafValues>
            -7.0423263311386108e-01 2.4316394329071045e-01
            -3.6064109206199646e-01 5.4993188381195068e-01</leafValues></_></weakClassifiers></_>
    <!-- stage 3 -->
    <_>
      <maxWeakCount>16</maxWeakCount>
      <stageThreshold>-5.5174553394317627e-01</stageThreshold>
      <weakClassifiers>
        <_>
          <internalNodes>
            1 2 51 -367863401 -50425577 607400 -581054254 549492907
            -263804278 -1165850613 -3670065 0 -1 48 -799845899
            -585481901 1966461439 -40562223 -2012628801 -1207893870
            -1414624257 -577912609 -2 -3 125 -698617771 -1056931840
            -2147188645 -754970112 -2138928511 -1602158460 -2105391765
            167792443</internalNodes>
          <leafValues>
            -7.4507904052734375e-01 5.7256776094436646e-01
            -5.4895186424255371e-01 5.0424855947494507e-01</leafValues></_>
        <_>
          <internalNodes>
            1 2 73 -1527079970 -27913838 18198967 386330931 424747953
            -191918053 197591411 -283653 0 -1 106 -204225497 -648736555
            67473625 -1625894657 -1451050973 -1651997568 -1583898372
            -1610638597 -2 -3 119 1078902836 -989658494 1073758360
            -805175104 -1307990801 822214795 2466044 553765803</internalNodes>
          <leafValues>
            -7.7923125028610229e-01 -9.7729966044425964e-02
            -4.9131742119789124e-01 5.4996180534362793e-01</leafValues></_>
        <_>
          <internalNodes>
            1 2 133 -1296057347 25395339 -1069317233 -1836334901
            548031197 8634499 -1970809891 -1513103355 0 -1 24 -650013765
            -619638384 17859352 -40300207 -1207381758 -50331616
            939624593 -1397770072 -2 -3 59 299192608 -804761328
            335627213 -652931065 -737557638 -1465876349 19051007
            335568961</internalNodes>
          <leafValues>
            -6.6705715656280518e-01 3.2558414340019226e-01
            -5.2089804410934448e-01 5.1576143503189087e-01</leafValues></_>
        <_>
          <internalNodes>
            1 2 72 -535453405 1349517443 1107349841 -804192230
            -1191149547 -1454899192 838982067 206048029 0 -1 88
            -1009530373 -653983741 1342196445 1141903367 -2122214465
            -1475821406 -1975418625 -61224577 -2 -3 143 -654131544
            84080615 801091073 -210927745 -1644202087 1035910621
            -1265561155 956243255</internalNodes>
          <leafValues>
            -7.4471288919448853e-01 5.7391124963760376e-01
            -3.9988192915916443e-01 5.1434218883514404e-01</leafValues></_>
        <_>
          <internalNodes>
            1 2 49 -1928998567 16896274 16812052 860950552 167870522
            -1988049912 -1996126034 -1667921767 0 -1 93 -1053318763
            1090748611 -1072569833 1715687822 4341830 -1073741819
            -2147231133 -84167953 -2 -3 90 -822235254 -1343311938
            -1345523778 -288575570 -1621291260 -151570 132394948
            -689117692</internalNodes>
          <leafValues>
            -6.6465431451797485e-01 3.5941278934478760e-01
            -4.9345889687538147e-01 5.9851461648941040e-01</leafValues></_>
        <_>
          <internalNodes>
            1 2 57 -15473769 21717263 -251606693 839057419 -2135970793
            -2079948211 -1794644857 2095041171 0 -1 45 -15175289
            -1424773119 17305624 -200332693 -1383098353 1174634496
            -2012313570 -149948845 -2 -3 120 -528489136 -1602226379
            -49330 -503447681 -42074627 1173878133 1975498029 -843841537</internalNodes>
          <leafValues>
            -7.4431604146957397e-01 3.3498723059892654e-02
            -2.3402030766010284e-01 6.2761378288269043e-01</leafValues></_>
        <_>
          <internalNodes>
            1 2 30 -318512173 -620687344 -183398201 -547876766
            1174612033 -192800598 -2138570550 1535854663 0 -1 77
            -779988330 -670006272 1082200089 -649789358 2654282
            -1685979127 138588387 -273483 -2 -3 65 753921282 536854518
            267370318 -1612439795 -1795222778 -685700602 1597488402
            -962345897</internalNodes>
          <leafValues>
            -7.3816484212875366e-01 2.5533941388130188e-01
            -2.9706707596778870e-01 5.8099758625030518e-01</leafValues></_>
        <_>
          <internalNodes>
            1 2 1 -892342706 -292700157 16843009 -544206620 -896630321
            -1886715773 1786954611 2120735489 0 -1 142 -1566916455
            -696023834 6363 1297694863 -1063206709 -1879015416
            1388497146 -1174218037 -2 -3 108 -469032956 -2146758640
            -1877958638 -2147352318 -1073741167 151027712 1249910944
            -637224476</internalNodes>
          <leafValues>
            -7.0733648538589478e-01 3.3978331089019775e-01
            -7.0187753438949585e-01 4.8181164264678955e-01</leafValues></_>
        <_>
          <internalNodes>
            1 2 107 1106022526 -1072316316 1494647348 -1069539248
            -1009967057 8982784 -1054105312 -1552369246 0 -1 123
            -875112101 -1014923262 1344897105 -779009663 -1039232925
            -2013265790 1342380249 -80752390 -2 -3 164 -1068531038
            3010082 739763745 -2006320552 1701836583 1349056351
            1194833188 271580379</internalNodes>
          <leafValues>
            -7.2977548837661743e-01 2.3260654509067535e-01
            -4.3782439827919006e-01 5.1712065935134888e-01</leafValues></_>
        <_>
          <internalNodes>
            1 2 86 -1256000546 1344520385 8507742 -1878703703 1761632261
            -1475739509 -229774721 418118255 0 -1 137 151249291
            1459650690 87 -49790720 -1735286631 -1718058870 -2113289122
            -72382310 -2 -3 87 -804110318 22167552 25182208 419434754
            276897795 1073741824 1342312577 -1969616508</internalNodes>
          <leafValues>
            -6.8404990434646606e-01 3.4970003366470337e-01
            -5.6262069940567017e-01 5.0074845552444458e-01</leafValues></_>
        <_>
          <internalNodes>
            1 2 69 -665620258 -233156560 268653426 -16731746 34607649
            -519880574 1750597699 2136472343 0 -1 99 -654242831
            1518551040 349176065 2035388673 -2130669379 -637468664
            805470723 -93597563 -2 -3 56 -534626078 436228112 50462736
            -250552174 1073872899 579338306 -1988034412 1183597864</internalNodes>
          <leafValues>
            -6.6911101341247559e-01 4.4938537478446960e-01
            -5.7986390590667725e-01 4.8754730820655823e-01</leafValues></_>
        <_>
          <internalNodes>
            1 2 162 -776505067 -45940607 -788461227 -783476845
            -366823013 -796261944 -620009333 145281387 0 -1 141
            -1869946701 -620724224 -2130395105 -515555328 1426313438
            -1451032448 1836755118 -551617333 -2 -3 122 33560372
            -1056882560 16405 -1475800813 -2147286872 -2013265920
            -1073200128 -1456601040</internalNodes>
          <leafValues>
            -6.2394946813583374e-01 4.4487300515174866e-01
            -5.7052117586135864e-01 5.7237905263900757e-01</leafValues></_>
        <_>
          <internalNodes>
            1 2 21 -905715006 1778815107 -2130542317 -771047152 82495
            1212809224 277508103 -45359153 0 -1 80 1350696245 1075855490
            -1878490945 -649453347 -1064730399 -1610088446 -259288866
            -1915203505 -2 -3 101 1078363178 -1035927528 285212708
            -761986668 -2146236144 672661648 25167925 219220311</internalNodes>
          <leafValues>
            -6.7144590616226196e-01 2.5156652927398682e-01
            -5.9861665964126587e-01 5.3919887542724609e-01</leafValues></_>
        <_>
          <internalNodes>
            1 2 38 33554498 -82833390 -788459357 1929741585 -1669217637
            -1199504767 33589694 1427194896 0 -1 85 -783067169
            1362219010 1342395861 -719892205 805770282 -2130575296
            -927993699 2072762911 -2 -3 117 -1502570884 -1090769036
            -536973777 -336777417 -1074053252 -1082167466 536293304
            -2064765792</internalNodes>
          <leafValues>
            -7.3123008012771606e-01 4.7887030243873596e-01
            -4.2064034938812256e-01 5.4167002439498901e-01</leafValues></_>
        <_>
          <internalNodes>
            1 2 139 -347183342 836829192 -1879031714 1376194635
            -2138037248 -251461632 168464274 2054054427 0 -1 163
            1361023127 -1474645360 -2126511871 -586829822 -2130079670
            -394100728 154042496 -274732561 -2 -3 58 -534871734
            1301544963 956895495 -2093113096 -802025446 168886791
            -2146922344 1468072533</internalNodes>
          <leafValues>
            -7.6864069700241089e-01 2.6538443565368652e-01
            -5.3490316867828369e-01 4.7850421071052551e-01</leafValues></_>
        <_>
          <internalNodes>
            1 2 155 -209453789 -200187767 1275199572 -700350445 45051920
            -805010846 448811979 1607182511 0 -1 140 -496033678
            -78569462 10797075 1236288133 -989083635 -2146580472
            281987213 -222379233 -2 -3 153 -528236286 -830275451 584
            -2012671999 436873732 1133513216 8783905 1669357734</internalNodes>
          <leafValues>
            -7.9136031866073608e-01 1.0260574519634247e-01
            -7.1738225221633911e-01 5.0985741615295410e-01</leafValues></_></weakClassifiers></_></stages>
  <features>
    <_>
      <rect>
        0 0 1 1</rect></_>
    <_>
      <rect>
        0 0 1 3</rect></_>
    <_>
      <rect>
        0 0 1 5</rect></_>
    <_>
      <rect>
        0 0 1 9</rect></_>
    <_>
      <rect>
        0 0 2 9</rect></_>
    <_>
      <rect>
        0 0 3 3</rect></_>
    <_>
      <rect>
        0 0 4 1</rect></_>
    <_>
      <rect>
        0 0 5 1</rect></_>
    <_>
      <rect>
        0 0 5 4</rect></_>
    <_>
      <rect>
        0 1 1 3</rect></_>
    <_>
      <rect>
        0 1 2 5</rect></_>
    <_>
      <rect>
        0 1 3 5</rect></_>
    <_>
      <rect>
        0 1 4 2</rect></_>
    <_>
      <rect>
        0 6 1 8</rect></_>
    <_>
      <rect>
        0 6 2 6</rect></_>
    <_>
      <rect>
        0 6 3 4</rect></_>
    <_>
      <rect>
        0 6 3 7</rect></_>
    <_>
      <rect>
        0 6 4 3</rect></_>
    <_>
      <rect>
        0 7 1 4</rect></_>
    <_>
      <rect>
        0 8 3 8</rect></_>
    <_>
      <rect>
        0 10 4 2</rect></_>
    <_>
      <rect>
        0 11 1 7</rect></_>
    <_>
      <rect>
        0 11 2 6</rect></_>
    <_>
      <rect>
        0 11 3 1</rect></_>
    <_>
      <rect>
        0 12 3 1</rect></_>
    <_>
      <rect>
        0 12 4 3</rect></_>
    <_>
      <rect>
        0 13 1 5</rect></_>
    <_>
      <rect>
        0 14 3 6</rect></_>
    <_>
      <rect>
        0 17 1 5</rect></_>
    <_>
      <rect>
        0 18 4 2</rect></_>
    <_>
      <rect>
        0 19 4 2</rect></_>
    <_>
      <rect>
        0 19 4 3</rect></_>
    <_>
      <rect>
        0 20 3 4</rect></_>
    <_>
      <rect>
        0 23 1 3</rect></_>
    <_>
      <rect>
        0 23 4 3</rect></_>
    <_>
      <rect>
        0 26 5 2</rect></_>
    <_>
      <rect>
        0 29 1 1</rect></_>
    <_>
      <rect>
        0 29 2 1</rect></_>
    <_>
      <rect>
        1 0 1 1</rect></_>
    <_>
      <rect>
        1 0 5 9</rect></_>
    <_>
      <rect>
        1 3 5 6</rect></_>
    <_>
      <rect>
        1 6 3 7</rect></_>
    <_>
      <rect>
        1 7 3 3</rect></_>
    <_>
      <rect>
        1 8 4 5</rect></_>
    <_>
      <rect>
        1 9 2 6</rect></_>
    <_>
      <rect>
        1 10 2 5</rect></_>
    <_>
      <rect>
        1 11 3 1</rect></_>
    <_>
      <rect>
        1 11 3 2</rect></_>
    <_>
      <rect>
        1 11 5 1</rect></_>
    <_>
      <rect>
        1 13 3 1</rect></_>
    <_>
      <rect>
        1 13 4 1</rect></_>
    <_>
      <rect>
        1 21 3 2</rect></_>
    <_>
      <rect>
        1 23 3 3</rect></_>
    <_>
      <rect>
        1 29 2 1</rect></_>
    <_>
      <rect>
        2 0 1 4</rect></_>
    <_>
      <rect>
        2 0 2 9</rect></_>
    <_>
      <rect>
        2 3 3 3</rect></_>
    <_>
      <rect>
        2 10 1 5</rect></_>
    <_>
      <rect>
        2 18 3 3</rect></_>
    <_>
      <rect>
        3 0 4 1</rect></_>
    <_>
      <rect>
        3 2 4 5</rect></_>
    <_>
      <rect>
        3 3 3 2</rect></_>
    <_>
      <rect>
        3 6 2 7</rect></_>
    <_>
      <rect>
        3 10 1 7</rect></_>
    <_>
      <rect>
        3 12 3 3</rect></_>
    <_>
      <rect>
        3 13 3 1</rect></_>
    <_>
      <rect>
        3 15 2 4</rect></_>
    <_>
      <rect>
        3 17 2 5</rect></_>
    <_>
      <rect>
        3 19 3 2</rect></_>
    <_>
      <rect>
        3 22 2 2</rect></_>
    <_>
      <rect>
        4 0 2 4</rect></_>
    <_>
      <rect>
        4 0 3 2</rect></_>
    <_>
      <rect>
        4 2 3 2</rect></_>
    <_>
      <rect>
        4 6 2 2</rect></_>
    <_>
      <rect>
        4 7 2 2</rect></_>
    <_>
      <rect>
        4 7 4 3</rect></_>
    <_>
      <rect>
        4 11 1 2</rect></_>
    <_>
      <rect>
        4 12 1 1</rect></_>
    <_>
      <rect>
        4 12 2 1</rect></_>
    <_>
      <rect>
        4 13 4 2</rect></_>
    <_>
      <rect>
        4 18 3 2</rect></_>
    <_>
      <rect>
        4 19 1 1</rect></_>
    <_>
      <rect>
        4 20 1 2</rect></_>
    <_>
      <rect>
        4 20 2 3</rect></_>
    <_>
      <rect>
        4 20 3 2</rect></_>
    <_>
      <rect>
        4 23 2 2</rect></_>
    <_>
      <rect>
        4 23 4 2</rect></_>
    <_>
      <rect>
        5 0 1 9</rect></_>
    <_>
      <rect>
        5 3 3 2</rect></_>
    <_>
      <rect>
        5 4 2 2</rect></_>
    <_>
      <rect>
        5 4 2 5</rect></_>
    <_>
      <rect>
        5 5 2 2</rect></_>
    <_>
      <rect>
        5 8 2 2</rect></_>
    <_>
      <rect>
        5 8 2 6</rect></_>
    <_>
      <rect>
        5 10 1 7</rect></_>
    <_>
      <rect>
        5 10 2 1</rect></_>
    <_>
      <rect>
        5 11 2 6</rect></_>
    <_>
      <rect>
        5 15 2 2</rect></_>
    <_>
      <rect>
        5 15 2 3</rect></_>
    <_>
      <rect>
        5 18 1 1</rect></_>
    <_>
      <rect>
        5 19 1 1</rect></_>
    <_>
      <rect>
        5 21 2 1</rect></_>
    <_>
      <rect>
        5 21 2 3</rect></_>
    <_>
      <rect>
        6 0 3 3</rect></_>
    <_>
      <rect>
        6 1 2 4</rect></_>
    <_>
      <rect>
        6 8 1 1</rect></_>
    <_>
      <rect>
        6 8 2 1</rect></_>
    <_>
      <rect>
        6 8 2 3</rect></_>
    <_>
      <rect>
        6 10 2 7</rect></_>
    <_>
      <rect>
        6 11 3 1</rect></_>
    <_>
      <rect>
        6 12 2 3</rect></_>
    <_>
      <rect>
        6 14 2 2</rect></_>
    <_>
      <rect>
        6 15 3 4</rect></_>
    <_>
      <rect>
        6 17 2 3</rect></_>
    <_>
      <rect>
        6 19 3 2</rect></_>
    <_>
      <rect>
        6 26 2 2</rect></_>
    <_>
      <rect>
        7 0 3 9</rect></_>
    <_>
      <rect>
        7 6 1 3</rect></_>
    <_>
      <rect>
        7 8 3 6</rect></_>
    <_>
      <rect>
        7 9 3 2</rect></_>
    <_>
      <rect>
        7 11 3 4</rect></_>
    <_>
      <rect>
        7 13 3 6</rect></_>
    <_>
      <rect>
        7 15 1 3</rect></_>
    <_>
      <rect>
        7 16 1 1</rect></_>
    <_>
      <rect>
        7 18 3 3</rect></_>
    <_>
      <rect>
        7 20 2 2</rect></_>
    <_>
      <rect>
        7 23 3 3</rect></_>
    <_>
      <rect>
        7 26 3 2</rect></_>
    <_>
      <rect>
        7 29 3 1</rect></_>
    <_>
      <rect>
        8 0 2 2</rect></_>
    <_>
      <rect>
        8 3 2 3</rect></_>
    <_>
      <rect>
        8 11 1 3</rect></_>
    <_>
      <rect>
        8 20 2 4</rect></_>
    <_>
      <rect>
        9 0 1 9</rect></_>
    <_>
      <rect>
        9 2 2 5</rect></_>
    <_>
      <rect>
        9 8 2 6</rect></_>
    <_>
      <rect>
        9 10 1 1</rect></_>
    <_>
      <rect>
        9 10 2 1</rect></_>
    <_>
      <rect>
        9 12 1 1</rect></_>
    <_>
      <rect>
        9 13 1 1</rect></_>
    <_>
      <rect>
        9 13 1 2</rect></_>
    <_>
      <rect>
        9 18 1 1</rect></_>
    <_>
      <rect>
        9 19 1 1</rect></_>
    <_>
      <rect>
        9 23 2 3</rect></_>
    <_>
      <rect>
        10 0 2 1</rect></_>
    <_>
      <rect>
        10 0 2 5</rect></_>
    <_>
      <rect>
        10 0 2 8</rect></_>
    <_>
      <rect>
        10 1 2 4</rect></_>
    <_>
      <rect>
        10 5 2 6</rect></_>
    <_>
      <rect>
        10 8 2 3</rect></_>
    <_>
      <rect>
        10 8 2 8</rect></_>
    <_>
      <rect>
        10 11 1 1</rect></_>
    <_>
      <rect>
        10 11 2 4</rect></_>
    <_>
      <rect>
        10 11 2 6</rect></_>
    <_>
      <rect>
        10 14 2 6</rect></_>
    <_>
      <rect>
        10 16 1 1</rect></_>
    <_>
      <rect>
        10 20 2 4</rect></_>
    <_>
      <rect>
        10 21 1 1</rect></_>
    <_>
      <rect>
        10 21 1 2</rect></_>
    <_>
      <rect>
        10 23 2 3</rect></_>
    <_>
      <rect>
        11 9 1 2</rect></_>
    <_>
      <rect>
        11 12 1 1</rect></_>
    <_>
      <rect>
        13 0 1 1</rect></_>
    <_>
      <rect>
        13 3 1 9</rect></_>
    <_>
      <rect>
        13 18 1 4</rect></_></features></cascade>
</opencv_storage>
